digraph Tree {
node [shape=box] ;
0 [label="X[3] <= 0.8\ngini = 0.667\nsamples = 112\nvalue = [38, 37, 37]"] ;
1 [label="gini = 0.0\nsamples = 38\nvalue = [38, 0, 0]"] ;
0 -> 1 [labeldistance=2.5, labelangle=45, headlabel="True"] ;
2 [label="X[3] <= 1.65\ngini = 0.5\nsamples = 74\nvalue = [0, 37, 37]"] ;
0 -> 2 [labeldistance=2.5, labelangle=-45, headlabel="False"] ;
3 [label="X[0] <= 7.1\ngini = 0.053\nsamples = 37\nvalue = [0, 36, 1]"] ;
2 -> 3 ;
4 [label="gini = 0.0\nsamples = 36\nvalue = [0, 36, 0]"] ;
3 -> 4 ;
5 [label="gini = 0.0\nsamples = 1\nvalue = [0, 0, 1]"] ;
3 -> 5 ;
6 [label="X[2] <= 4.85\ngini = 0.053\nsamples = 37\nvalue = [0, 1, 36]"] ;
2 -> 6 ;
7 [label="X[1] <= 3.1\ngini = 0.375\nsamples = 4\nvalue = [0, 1, 3]"] ;
6 -> 7 ;
8 [label="gini = 0.0\nsamples = 3\nvalue = [0, 0, 3]"] ;
7 -> 8 ;
9 [label="gini = 0.0\nsamples = 1\nvalue = [0, 1, 0]"] ;
7 -> 9 ;
10 [label="gini = 0.0\nsamples = 33\nvalue = [0, 0, 33]"] ;
6 -> 10 ;
}